{
  "features_info": {
    "float_features": [
      {
        "borders": [],
        "feature_id": "",
        "feature_index": 0,
        "flat_feature_index": 0,
        "has_nans": false,
        "nan_value_treatment": "AsIs"
      },
      {
        "borders": [0.10931967943906784],
        "feature_id": "",
        "feature_index": 1,
        "flat_feature_index": 1,
        "has_nans": false,
        "nan_value_treatment": "AsIs"
      },
      {
        "borders": [
          -0.071686789393424988, -0.063851863145828247, -0.062512606382369995, -0.044494852423667908,
          -0.00073179090395569801, 0.013893479481339455, 0.021626565605401993, 0.036393426358699799,
          0.039686277508735657, 0.068247660994529724, 0.071540661156177521, 0.073769688606262207, 0.074318662285804749,
          0.077218353748321533, 0.079749502241611481
        ],
        "feature_id": "",
        "feature_index": 2,
        "flat_feature_index": 2,
        "has_nans": false,
        "nan_value_treatment": "AsIs"
      },
      {
        "borders": [
          -0.061191290616989136, -0.043559402227401733, -0.028092151507735252, -0.023863695561885834,
          0.023766160011291504, 0.035394676029682159, 0.037821970880031586, 0.052522830665111542, 0.057724103331565857,
          0.059295155107975006, 0.06174410879611969, 0.062120936810970306, 0.062489360570907593, 0.065557032823562622,
          0.067003816366195679
        ],
        "feature_id": "",
        "feature_index": 3,
        "flat_feature_index": 3,
        "has_nans": false,
        "nan_value_treatment": "AsIs"
      },
      {
        "borders": [],
        "feature_id": "",
        "feature_index": 4,
        "flat_feature_index": 4,
        "has_nans": false,
        "nan_value_treatment": "AsIs"
      },
      {
        "borders": [
          -0.086062416434288025, -0.026441264897584915, -0.0017889324808493257, 0.0029102249536663294,
          0.0035267048515379429, 0.013165134936571121, 0.018910063430666924
        ],
        "feature_id": "",
        "feature_index": 5,
        "flat_feature_index": 5,
        "has_nans": false,
        "nan_value_treatment": "AsIs"
      },
      {
        "borders": [-0.077696368098258972],
        "feature_id": "",
        "feature_index": 6,
        "flat_feature_index": 6,
        "has_nans": false,
        "nan_value_treatment": "AsIs"
      },
      {
        "borders": [-0.052537396550178528, -0.046734847128391266, 0.049669854342937469, 0.10638388991355896],
        "feature_id": "",
        "feature_index": 7,
        "flat_feature_index": 7,
        "has_nans": false,
        "nan_value_treatment": "AsIs"
      },
      {
        "borders": [],
        "feature_id": "",
        "feature_index": 8,
        "flat_feature_index": 8,
        "has_nans": false,
        "nan_value_treatment": "AsIs"
      },
      {
        "borders": [-0.02259315550327301, 0.041639618575572968],
        "feature_id": "",
        "feature_index": 9,
        "flat_feature_index": 9,
        "has_nans": false,
        "nan_value_treatment": "AsIs"
      },
      {
        "borders": [
          -0.033154476433992386, -0.011262683197855949, -0.009981224313378334, -0.0010741646401584148,
          0.015843253582715988, 0.046120688319206238, 0.065149612724781036, 0.10874170809984207
        ],
        "feature_id": "",
        "feature_index": 10,
        "flat_feature_index": 10,
        "has_nans": false,
        "nan_value_treatment": "AsIs"
      },
      {
        "borders": [-0.10832508653402328, -0.090084284543991089, -0.012341742403805256, 0.033696241676807404],
        "feature_id": "",
        "feature_index": 11,
        "flat_feature_index": 11,
        "has_nans": false,
        "nan_value_treatment": "AsIs"
      },
      {
        "borders": [
          -0.040369786322116852, -0.036934606730937958, -0.016979016363620758, -0.001142475288361311,
          0.018038671463727951, 0.043370239436626434
        ],
        "feature_id": "",
        "feature_index": 12,
        "flat_feature_index": 12,
        "has_nans": false,
        "nan_value_treatment": "AsIs"
      },
      {
        "borders": [0.0037538863252848387, 0.027133848518133163],
        "feature_id": "",
        "feature_index": 13,
        "flat_feature_index": 13,
        "has_nans": false,
        "nan_value_treatment": "AsIs"
      },
      {
        "borders": [-0.0046071549877524376],
        "feature_id": "",
        "feature_index": 14,
        "flat_feature_index": 14,
        "has_nans": false,
        "nan_value_treatment": "AsIs"
      },
      {
        "borders": [-0.0047988882288336754, 0.020000549033284187, 0.08070121705532074],
        "feature_id": "",
        "feature_index": 15,
        "flat_feature_index": 15,
        "has_nans": false,
        "nan_value_treatment": "AsIs"
      },
      {
        "borders": [-0.12846669554710388, -0.1045861691236496],
        "feature_id": "",
        "feature_index": 16,
        "flat_feature_index": 16,
        "has_nans": false,
        "nan_value_treatment": "AsIs"
      },
      {
        "borders": [
          -0.051401518285274506, -0.029970800504088402, 0.0066896849311888218, 0.018243074417114258,
          0.020727172493934631, 0.027135750278830528, 0.0277702696621418, 0.030919909477233887
        ],
        "feature_id": "",
        "feature_index": 17,
        "flat_feature_index": 17,
        "has_nans": false,
        "nan_value_treatment": "AsIs"
      },
      {
        "borders": [],
        "feature_id": "",
        "feature_index": 18,
        "flat_feature_index": 18,
        "has_nans": false,
        "nan_value_treatment": "AsIs"
      },
      {
        "borders": [
          0.048127122223377228, 0.051649965345859528, 0.056847743690013885, 0.057512883096933365, 0.059576332569122314,
          0.077696956694126129
        ],
        "feature_id": "",
        "feature_index": 19,
        "flat_feature_index": 19,
        "has_nans": false,
        "nan_value_treatment": "AsIs"
      },
      {
        "borders": [
          -0.064908638596534729, -0.063324332237243652, -0.013024693354964256, -0.0041295373812317848,
          -0.0034721451811492443
        ],
        "feature_id": "",
        "feature_index": 20,
        "flat_feature_index": 20,
        "has_nans": false,
        "nan_value_treatment": "AsIs"
      },
      {
        "borders": [
          -0.053917422890663147, -0.051771581172943115, -0.041548565030097961, -0.011060860008001328,
          -0.0087823802605271339, 0.0047265123575925827, 0.021487362682819366, 0.044557064771652222,
          0.084203526377677917
        ],
        "feature_id": "",
        "feature_index": 21,
        "flat_feature_index": 21,
        "has_nans": false,
        "nan_value_treatment": "AsIs"
      },
      {
        "borders": [
          -0.039981070905923843, -0.028441665694117546, -0.01484848465770483, -0.013344590552151203,
          -0.011549199931323528, 0.047502912580966949, 0.057814933359622955, 0.058603972196578979, 0.061774227768182755,
          0.064472116529941559
        ],
        "feature_id": "",
        "feature_index": 22,
        "flat_feature_index": 22,
        "has_nans": false,
        "nan_value_treatment": "AsIs"
      },
      {
        "borders": [-0.037164770066738129, 0.046118784695863724, 0.048972107470035553],
        "feature_id": "",
        "feature_index": 23,
        "flat_feature_index": 23,
        "has_nans": false,
        "nan_value_treatment": "AsIs"
      },
      {
        "borders": [
          -0.091206163167953491, -0.086294762790203094, -0.016235547140240669, 0.0092632584273815155,
          0.017164185643196106, 0.018429670482873917
        ],
        "feature_id": "",
        "feature_index": 24,
        "flat_feature_index": 24,
        "has_nans": false,
        "nan_value_treatment": "AsIs"
      },
      {
        "borders": [0.026903195306658745],
        "feature_id": "",
        "feature_index": 25,
        "flat_feature_index": 25,
        "has_nans": false,
        "nan_value_treatment": "AsIs"
      },
      {
        "borders": [-0.049121089279651642],
        "feature_id": "",
        "feature_index": 26,
        "flat_feature_index": 26,
        "has_nans": false,
        "nan_value_treatment": "AsIs"
      },
      {
        "borders": [
          -0.029130257666110992, -0.025487780570983887, 0.012519827112555504, 0.076621778309345245,
          0.079195588827133179, 0.080511823296546936, 0.082459524273872375, 0.085057437419891357
        ],
        "feature_id": "",
        "feature_index": 27,
        "flat_feature_index": 27,
        "has_nans": false,
        "nan_value_treatment": "AsIs"
      },
      {
        "borders": [],
        "feature_id": "",
        "feature_index": 28,
        "flat_feature_index": 28,
        "has_nans": false,
        "nan_value_treatment": "AsIs"
      },
      {
        "borders": [],
        "feature_id": "",
        "feature_index": 29,
        "flat_feature_index": 29,
        "has_nans": false,
        "nan_value_treatment": "AsIs"
      },
      {
        "borders": [
          -0.0062310295179486275, 0.013257741928100586, 0.017008159309625626, 0.01831543818116188, 0.030443830415606499,
          0.039130285382270813, 0.040433254092931747, 0.041846975684165955, 0.046166412532329559, 0.06641368567943573,
          0.088391788303852081, 0.09987214207649231, 0.10740085691213608, 0.15295460820198059
        ],
        "feature_id": "",
        "feature_index": 30,
        "flat_feature_index": 30,
        "has_nans": false,
        "nan_value_treatment": "AsIs"
      },
      {
        "borders": [
          -0.086050726473331451, -0.084409654140472412, -0.083682358264923096, -0.083415202796459198,
          -0.079776525497436523, -0.056600205600261688
        ],
        "feature_id": "",
        "feature_index": 31,
        "flat_feature_index": 31,
        "has_nans": false,
        "nan_value_treatment": "AsIs"
      },
      {
        "borders": [-0.094858385622501373, -0.092449843883514404, -0.087439954280853271, -0.015491655096411705],
        "feature_id": "",
        "feature_index": 32,
        "flat_feature_index": 32,
        "has_nans": false,
        "nan_value_treatment": "AsIs"
      },
      {
        "borders": [-0.082503050565719604],
        "feature_id": "",
        "feature_index": 33,
        "flat_feature_index": 33,
        "has_nans": false,
        "nan_value_treatment": "AsIs"
      },
      {
        "borders": [0.0059827687218785286],
        "feature_id": "",
        "feature_index": 34,
        "flat_feature_index": 34,
        "has_nans": false,
        "nan_value_treatment": "AsIs"
      },
      {
        "borders": [0.040707271546125412, 0.094935700297355652],
        "feature_id": "",
        "feature_index": 35,
        "flat_feature_index": 35,
        "has_nans": false,
        "nan_value_treatment": "AsIs"
      },
      {
        "borders": [
          -0.04118841141462326, -0.0076946904882788658, 0.030729932710528374, 0.035113036632537842,
          0.035720221698284149, 0.037187512964010239, 0.065427131950855255
        ],
        "feature_id": "",
        "feature_index": 36,
        "flat_feature_index": 36,
        "has_nans": false,
        "nan_value_treatment": "AsIs"
      },
      {
        "borders": [
          -0.094938084483146667, -0.062058411538600922, -0.060628123581409454, -0.059031080454587936,
          -0.058419056236743927, -0.057403028011322021, -0.056925114244222641, -0.055745549499988556,
          -0.05343165248632431, -0.051333338022232056, 0.020762447267770767, 0.028808671981096268, 0.02969556488096714
        ],
        "feature_id": "",
        "feature_index": 37,
        "flat_feature_index": 37,
        "has_nans": false,
        "nan_value_treatment": "AsIs"
      },
      {
        "borders": [
          0.05931902676820755, 0.059655085206031799, 0.064267903566360474, 0.069775603711605072, 0.070301637053489685,
          0.070877335965633392, 0.083978414535522461
        ],
        "feature_id": "",
        "feature_index": 38,
        "flat_feature_index": 38,
        "has_nans": false,
        "nan_value_treatment": "AsIs"
      },
      {
        "borders": [],
        "feature_id": "",
        "feature_index": 39,
        "flat_feature_index": 39,
        "has_nans": false,
        "nan_value_treatment": "AsIs"
      },
      {
        "borders": [0.037974059581756592],
        "feature_id": "",
        "feature_index": 40,
        "flat_feature_index": 40,
        "has_nans": false,
        "nan_value_treatment": "AsIs"
      },
      {
        "borders": [
          -0.059079989790916443, -0.057058244943618774, -0.049155712127685547, -0.024902759119868279,
          -0.010530808940529823, -0.0085264332592487335, -0.0065027056261897087, -0.0050747599452733994,
          -0.0010788266081362963
        ],
        "feature_id": "",
        "feature_index": 41,
        "flat_feature_index": 41,
        "has_nans": false,
        "nan_value_treatment": "AsIs"
      },
      {
        "borders": [
          -0.12050049006938934, -0.063971281051635742, -0.03163503110408783, -0.020957875996828079,
          -0.0080959200859069824
        ],
        "feature_id": "",
        "feature_index": 42,
        "flat_feature_index": 42,
        "has_nans": false,
        "nan_value_treatment": "AsIs"
      },
      {
        "borders": [
          0.074665307998657227, 0.079736426472663879, 0.082767575979232788, 0.083783790469169617, 0.096457645297050476,
          0.096796691417694092, 0.097251780331134796, 0.09811072051525116, 0.098497152328491211, 0.098847523331642151,
          0.10514342784881592
        ],
        "feature_id": "",
        "feature_index": 43,
        "flat_feature_index": 43,
        "has_nans": false,
        "nan_value_treatment": "AsIs"
      },
      {
        "borders": [0.010115574114024639],
        "feature_id": "",
        "feature_index": 44,
        "flat_feature_index": 44,
        "has_nans": false,
        "nan_value_treatment": "AsIs"
      },
      {
        "borders": [
          -0.063143223524093628, -0.056641332805156708, -0.033332318067550659, -0.022178750485181808,
          -0.0095704887062311172, -0.0011259805178269744, 0.0098649915307760239, 0.012232812121510506
        ],
        "feature_id": "",
        "feature_index": 45,
        "flat_feature_index": 45,
        "has_nans": false,
        "nan_value_treatment": "AsIs"
      },
      {
        "borders": [],
        "feature_id": "",
        "feature_index": 46,
        "flat_feature_index": 46,
        "has_nans": false,
        "nan_value_treatment": "AsIs"
      },
      {
        "borders": [-0.10227560251951218, -0.080194279551506042, -0.051119629293680191, -0.036839358508586884],
        "feature_id": "",
        "feature_index": 47,
        "flat_feature_index": 47,
        "has_nans": false,
        "nan_value_treatment": "AsIs"
      },
      {
        "borders": [0.044793814420700073, 0.048921979963779449, 0.071263581514358521, 0.095518656075000763],
        "feature_id": "",
        "feature_index": 48,
        "flat_feature_index": 48,
        "has_nans": false,
        "nan_value_treatment": "AsIs"
      },
      {
        "borders": [0.12268960475921631],
        "feature_id": "",
        "feature_index": 49,
        "flat_feature_index": 49,
        "has_nans": false,
        "nan_value_treatment": "AsIs"
      },
      {
        "borders": [
          -0.10488040745258331, -0.071263730525970459, -0.048419654369354248, -0.040014088153839111,
          -0.035312242805957794
        ],
        "feature_id": "",
        "feature_index": 50,
        "flat_feature_index": 50,
        "has_nans": false,
        "nan_value_treatment": "AsIs"
      },
      {
        "borders": [-0.024820912629365921, -0.0013544219546020031, 0.0058768265880644321],
        "feature_id": "",
        "feature_index": 51,
        "flat_feature_index": 51,
        "has_nans": false,
        "nan_value_treatment": "AsIs"
      },
      {
        "borders": [-0.046371009200811386],
        "feature_id": "",
        "feature_index": 52,
        "flat_feature_index": 52,
        "has_nans": false,
        "nan_value_treatment": "AsIs"
      },
      {
        "borders": [
          -0.058173023164272308, -0.052701879292726517, -0.047398209571838379, 0.020552963018417358,
          0.061812873929738998
        ],
        "feature_id": "",
        "feature_index": 53,
        "flat_feature_index": 53,
        "has_nans": false,
        "nan_value_treatment": "AsIs"
      },
      {
        "borders": [
          -0.13119722902774811, -0.12701335549354553, -0.12518033385276794, -0.12290418148040771, -0.082740694284439087,
          -0.062752991914749146, -0.023881150409579277
        ],
        "feature_id": "",
        "feature_index": 54,
        "flat_feature_index": 54,
        "has_nans": false,
        "nan_value_treatment": "AsIs"
      },
      {
        "borders": [-0.01813819631934166, 0.088741153478622437],
        "feature_id": "",
        "feature_index": 55,
        "flat_feature_index": 55,
        "has_nans": false,
        "nan_value_treatment": "AsIs"
      },
      {
        "borders": [
          -0.11155040562152863, -0.06808316707611084, -0.065530270338058472, -0.060153253376483917,
          -0.059488877654075623, -0.055406272411346436
        ],
        "feature_id": "",
        "feature_index": 56,
        "flat_feature_index": 56,
        "has_nans": false,
        "nan_value_treatment": "AsIs"
      },
      {
        "borders": [-0.048087425529956818, 0.045515529811382294, 0.052761096507310867, 0.10910114645957947],
        "feature_id": "",
        "feature_index": 57,
        "flat_feature_index": 57,
        "has_nans": false,
        "nan_value_treatment": "AsIs"
      },
      {
        "borders": [-0.078272297978401184, -0.060685273259878159, 0.0082475850358605385],
        "feature_id": "",
        "feature_index": 58,
        "flat_feature_index": 58,
        "has_nans": false,
        "nan_value_treatment": "AsIs"
      },
      {
        "borders": [
          -0.06710360199213028, -0.016920680180191994, -0.013136014342308044, -0.01061480026692152,
          0.014083608984947205, 0.039713110774755478, 0.0657072514295578
        ],
        "feature_id": "",
        "feature_index": 59,
        "flat_feature_index": 59,
        "has_nans": false,
        "nan_value_treatment": "AsIs"
      },
      {
        "borders": [
          -0.0074556246399879456, 0.0089316274970769882, 0.012943246401846409, 0.018640559166669846,
          0.031680703163146973, 0.03203066810965538, 0.033659853041172028, 0.038022946566343307, 0.080103367567062378
        ],
        "feature_id": "",
        "feature_index": 60,
        "flat_feature_index": 60,
        "has_nans": false,
        "nan_value_treatment": "AsIs"
      },
      {
        "borders": [-0.10804431885480881],
        "feature_id": "",
        "feature_index": 61,
        "flat_feature_index": 61,
        "has_nans": false,
        "nan_value_treatment": "AsIs"
      },
      {
        "borders": [
          -0.056199111044406891, -0.04550272598862648, -0.033587433397769928, 0.011585589498281479,
          0.024946723133325577, 0.030852057039737701, 0.031978487968444824
        ],
        "feature_id": "",
        "feature_index": 62,
        "flat_feature_index": 62,
        "has_nans": false,
        "nan_value_treatment": "AsIs"
      },
      {
        "borders": [-0.020430384203791618, 0.019974220544099808],
        "feature_id": "",
        "feature_index": 63,
        "flat_feature_index": 63,
        "has_nans": false,
        "nan_value_treatment": "AsIs"
      },
      {
        "borders": [
          -0.16443544626235962, -0.11182700842618942, -0.038755305111408234, -0.038460865616798401, 0.029981490224599838
        ],
        "feature_id": "",
        "feature_index": 64,
        "flat_feature_index": 64,
        "has_nans": false,
        "nan_value_treatment": "AsIs"
      },
      {
        "borders": [
          -0.13053873181343079, -0.12264817953109741, -0.061460964381694794, -0.033211834728717804, 0.039962388575077057
        ],
        "feature_id": "",
        "feature_index": 65,
        "flat_feature_index": 65,
        "has_nans": false,
        "nan_value_treatment": "AsIs"
      },
      {
        "borders": [
          -0.014113191515207291, -0.008618917316198349, 0.0075231250375509262, 0.0083309710025787354,
          0.010589011944830418, 0.013531440868973732, 0.017634173855185509
        ],
        "feature_id": "",
        "feature_index": 66,
        "flat_feature_index": 66,
        "has_nans": false,
        "nan_value_treatment": "AsIs"
      },
      {
        "borders": [0.013840440660715103, 0.057090140879154205, 0.13336397707462311],
        "feature_id": "",
        "feature_index": 67,
        "flat_feature_index": 67,
        "has_nans": false,
        "nan_value_treatment": "AsIs"
      },
      {
        "borders": [0.030081570148468018],
        "feature_id": "",
        "feature_index": 68,
        "flat_feature_index": 68,
        "has_nans": false,
        "nan_value_treatment": "AsIs"
      },
      {
        "borders": [0.041244320571422577, 0.09253343939781189],
        "feature_id": "",
        "feature_index": 69,
        "flat_feature_index": 69,
        "has_nans": false,
        "nan_value_treatment": "AsIs"
      },
      {
        "borders": [0.0089712012559175491, 0.05015447735786438, 0.052708417177200317],
        "feature_id": "",
        "feature_index": 70,
        "flat_feature_index": 70,
        "has_nans": false,
        "nan_value_treatment": "AsIs"
      },
      {
        "borders": [0.069954670965671539, 0.11055860668420792, 0.11497396230697632],
        "feature_id": "",
        "feature_index": 71,
        "flat_feature_index": 71,
        "has_nans": false,
        "nan_value_treatment": "AsIs"
      },
      {
        "borders": [0.031269799917936325],
        "feature_id": "",
        "feature_index": 72,
        "flat_feature_index": 72,
        "has_nans": false,
        "nan_value_treatment": "AsIs"
      },
      {
        "borders": [-0.0072098216041922569, -0.0068026389926671982],
        "feature_id": "",
        "feature_index": 73,
        "flat_feature_index": 73,
        "has_nans": false,
        "nan_value_treatment": "AsIs"
      },
      {
        "borders": [
          -0.086320236325263977, -0.036119271069765091, -0.032444439828395844, -0.03197934478521347,
          -0.020430393517017365, -0.017117157578468323, -0.01079251617193222, -0.0085476590320467949,
          -0.0079977978020906448, -0.0045545566827058792, -0.0035002604126930237
        ],
        "feature_id": "",
        "feature_index": 74,
        "flat_feature_index": 74,
        "has_nans": false,
        "nan_value_treatment": "AsIs"
      },
      {
        "borders": [],
        "feature_id": "",
        "feature_index": 75,
        "flat_feature_index": 75,
        "has_nans": false,
        "nan_value_treatment": "AsIs"
      },
      {
        "borders": [-0.038311555981636047, -0.032359316945075989, 0.0009085095371119678, 0.001648006378673017],
        "feature_id": "",
        "feature_index": 76,
        "flat_feature_index": 76,
        "has_nans": false,
        "nan_value_treatment": "AsIs"
      },
      {
        "borders": [0.061241123825311661],
        "feature_id": "",
        "feature_index": 77,
        "flat_feature_index": 77,
        "has_nans": false,
        "nan_value_treatment": "AsIs"
      },
      {
        "borders": [
          -0.060561906546354294, -0.017322748899459839, -0.016602698713541031, -0.015802469104528427,
          0.0081812236458063126, 0.010702939704060555
        ],
        "feature_id": "",
        "feature_index": 78,
        "flat_feature_index": 78,
        "has_nans": false,
        "nan_value_treatment": "AsIs"
      },
      {
        "borders": [-0.012151145376265049],
        "feature_id": "",
        "feature_index": 79,
        "flat_feature_index": 79,
        "has_nans": false,
        "nan_value_treatment": "AsIs"
      },
      {
        "borders": [
          -0.0040011294186115265, -0.0036685739178210497, 0.022003285586833954, 0.027925882488489151,
          0.033298268914222717, 0.036149661988019943, 0.045095600187778473, 0.046419709920883179, 0.046857409179210663,
          0.047260880470275879
        ],
        "feature_id": "",
        "feature_index": 80,
        "flat_feature_index": 80,
        "has_nans": false,
        "nan_value_treatment": "AsIs"
      },
      {
        "borders": [-0.003966107964515686, 0.033814102411270142, 0.053871288895606995],
        "feature_id": "",
        "feature_index": 81,
        "flat_feature_index": 81,
        "has_nans": false,
        "nan_value_treatment": "AsIs"
      },
      {
        "borders": [
          -0.075857482850551605, -0.069001749157905579, -0.06575571745634079, -0.065380394458770752,
          -0.058206133544445038, -0.042233511805534363, -0.039988074451684952, -0.028120456263422966,
          -0.010729231871664524, -0.0013944478705525398, -0.00034972093999385834
        ],
        "feature_id": "",
        "feature_index": 82,
        "flat_feature_index": 82,
        "has_nans": false,
        "nan_value_treatment": "AsIs"
      },
      {
        "borders": [-0.06106775626540184, 0.016169480979442596],
        "feature_id": "",
        "feature_index": 83,
        "flat_feature_index": 83,
        "has_nans": false,
        "nan_value_treatment": "AsIs"
      },
      {
        "borders": [-0.055411677807569504, -0.03386533260345459, 0.04381927102804184],
        "feature_id": "",
        "feature_index": 84,
        "flat_feature_index": 84,
        "has_nans": false,
        "nan_value_treatment": "AsIs"
      },
      {
        "borders": [],
        "feature_id": "",
        "feature_index": 85,
        "flat_feature_index": 85,
        "has_nans": false,
        "nan_value_treatment": "AsIs"
      },
      {
        "borders": [-0.20711414515972137, -0.15703168511390686, -0.13551121950149536],
        "feature_id": "",
        "feature_index": 86,
        "flat_feature_index": 86,
        "has_nans": false,
        "nan_value_treatment": "AsIs"
      },
      {
        "borders": [
          -0.0042712562717497349, 0.0071889171376824379, 0.011321086436510086, 0.015301644802093506,
          0.017002105712890625, 0.018866386264562607, 0.020373020321130753
        ],
        "feature_id": "",
        "feature_index": 87,
        "flat_feature_index": 87,
        "has_nans": false,
        "nan_value_treatment": "AsIs"
      },
      {
        "borders": [
          -0.022080142050981522, 0.011205687187612057, 0.014483275823295116, 0.02601165696978569, 0.027542077004909515
        ],
        "feature_id": "",
        "feature_index": 88,
        "flat_feature_index": 88,
        "has_nans": false,
        "nan_value_treatment": "AsIs"
      },
      {
        "borders": [0.047005645930767059, 0.079630836844444275],
        "feature_id": "",
        "feature_index": 89,
        "flat_feature_index": 89,
        "has_nans": false,
        "nan_value_treatment": "AsIs"
      },
      {
        "borders": [-0.055085442960262299],
        "feature_id": "",
        "feature_index": 90,
        "flat_feature_index": 90,
        "has_nans": false,
        "nan_value_treatment": "AsIs"
      },
      {
        "borders": [0.057669878005981445, 0.070802614092826843],
        "feature_id": "",
        "feature_index": 91,
        "flat_feature_index": 91,
        "has_nans": false,
        "nan_value_treatment": "AsIs"
      },
      {
        "borders": [
          -0.099103689193725586, -0.055433429777622223, -0.05431462824344635, -0.0069513209164142609,
          -0.0043824035674333572, 0.0097169214859604836
        ],
        "feature_id": "",
        "feature_index": 92,
        "flat_feature_index": 92,
        "has_nans": false,
        "nan_value_treatment": "AsIs"
      },
      {
        "borders": [-0.027391836047172546],
        "feature_id": "",
        "feature_index": 93,
        "flat_feature_index": 93,
        "has_nans": false,
        "nan_value_treatment": "AsIs"
      },
      {
        "borders": [0.1344832181930542],
        "feature_id": "",
        "feature_index": 94,
        "flat_feature_index": 94,
        "has_nans": false,
        "nan_value_treatment": "AsIs"
      },
      {
        "borders": [-0.041977778077125549, 0.068526409566402435],
        "feature_id": "",
        "feature_index": 95,
        "flat_feature_index": 95,
        "has_nans": false,
        "nan_value_treatment": "AsIs"
      },
      {
        "borders": [-0.12353499233722687],
        "feature_id": "",
        "feature_index": 96,
        "flat_feature_index": 96,
        "has_nans": false,
        "nan_value_treatment": "AsIs"
      },
      {
        "borders": [0.044681623578071594, 0.05842658132314682, 0.10575452446937561],
        "feature_id": "",
        "feature_index": 97,
        "flat_feature_index": 97,
        "has_nans": false,
        "nan_value_treatment": "AsIs"
      },
      {
        "borders": [
          0.058916434645652771, 0.067542150616645813, 0.0880870521068573, 0.091174080967903137, 0.093628421425819397,
          0.094887621700763702, 0.10388347506523132
        ],
        "feature_id": "",
        "feature_index": 98,
        "flat_feature_index": 98,
        "has_nans": false,
        "nan_value_treatment": "AsIs"
      },
      {
        "borders": [0.00575276929885149, 0.045248299837112427],
        "feature_id": "",
        "feature_index": 99,
        "flat_feature_index": 99,
        "has_nans": false,
        "nan_value_treatment": "AsIs"
      },
      {
        "borders": [
          -0.045189946889877319, -0.041663818061351776, -0.030092252418398857, 0.049165844917297363,
          0.089525327086448669
        ],
        "feature_id": "",
        "feature_index": 100,
        "flat_feature_index": 100,
        "has_nans": false,
        "nan_value_treatment": "AsIs"
      },
      {
        "borders": [-0.123944491147995, -0.036717057228088379],
        "feature_id": "",
        "feature_index": 101,
        "flat_feature_index": 101,
        "has_nans": false,
        "nan_value_treatment": "AsIs"
      },
      {
        "borders": [-0.054886102676391602],
        "feature_id": "",
        "feature_index": 102,
        "flat_feature_index": 102,
        "has_nans": false,
        "nan_value_treatment": "AsIs"
      },
      {
        "borders": [0.046861413866281509],
        "feature_id": "",
        "feature_index": 103,
        "flat_feature_index": 103,
        "has_nans": false,
        "nan_value_treatment": "AsIs"
      },
      {
        "borders": [-0.0052523231133818626, 0.031864002346992493],
        "feature_id": "",
        "feature_index": 104,
        "flat_feature_index": 104,
        "has_nans": false,
        "nan_value_treatment": "AsIs"
      },
      {
        "borders": [
          -0.023443007841706276, 0.030935395509004593, 0.068433173000812531, 0.070126622915267944, 0.087282463908195496,
          0.091118693351745605, 0.099952965974807739
        ],
        "feature_id": "",
        "feature_index": 105,
        "flat_feature_index": 105,
        "has_nans": false,
        "nan_value_treatment": "AsIs"
      },
      {
        "borders": [],
        "feature_id": "",
        "feature_index": 106,
        "flat_feature_index": 106,
        "has_nans": false,
        "nan_value_treatment": "AsIs"
      },
      {
        "borders": [-0.099745720624923706, -0.078151725232601166],
        "feature_id": "",
        "feature_index": 107,
        "flat_feature_index": 107,
        "has_nans": false,
        "nan_value_treatment": "AsIs"
      },
      {
        "borders": [0.071672335267066956, 0.075934961438179016],
        "feature_id": "",
        "feature_index": 108,
        "flat_feature_index": 108,
        "has_nans": false,
        "nan_value_treatment": "AsIs"
      },
      {
        "borders": [-0.068066313862800598, 0.0012566957157105207],
        "feature_id": "",
        "feature_index": 109,
        "flat_feature_index": 109,
        "has_nans": false,
        "nan_value_treatment": "AsIs"
      },
      {
        "borders": [
          -0.15880495309829712, -0.1470373272895813, -0.13395997881889343, -0.13281795382499695, -0.11484323441982269,
          -0.10514966398477554, -0.093072213232517242, -0.052303578704595566
        ],
        "feature_id": "",
        "feature_index": 110,
        "flat_feature_index": 110,
        "has_nans": false,
        "nan_value_treatment": "AsIs"
      },
      {
        "borders": [-0.068717233836650848, -0.056152734905481339],
        "feature_id": "",
        "feature_index": 111,
        "flat_feature_index": 111,
        "has_nans": false,
        "nan_value_treatment": "AsIs"
      },
      {
        "borders": [-0.034207660704851151, 0.0038185007870197296],
        "feature_id": "",
        "feature_index": 112,
        "flat_feature_index": 112,
        "has_nans": false,
        "nan_value_treatment": "AsIs"
      },
      {
        "borders": [0.0085514653474092484, 0.017524672672152519],
        "feature_id": "",
        "feature_index": 113,
        "flat_feature_index": 113,
        "has_nans": false,
        "nan_value_treatment": "AsIs"
      },
      {
        "borders": [-0.0015924065373837948],
        "feature_id": "",
        "feature_index": 114,
        "flat_feature_index": 114,
        "has_nans": false,
        "nan_value_treatment": "AsIs"
      },
      {
        "borders": [0.016378950327634811, 0.022009871900081635],
        "feature_id": "",
        "feature_index": 115,
        "flat_feature_index": 115,
        "has_nans": false,
        "nan_value_treatment": "AsIs"
      },
      {
        "borders": [
          -0.11059039086103439, -0.10945455729961395, -0.10779493302106857, -0.084556020796298981,
          -0.064498335123062134, -0.057776361703872681, -0.055886581540107727, -0.0546412393450737,
          -0.054167032241821289, -0.035251908004283905, -0.034150782972574234, -0.03312678262591362,
          -0.032317150384187698, -0.031824231147766113, -0.031369507312774658, -0.03020467609167099,
          -0.027360362932085991, -0.024836191907525063, -0.024068016558885574, -0.021368615329265594,
          -0.0053126495331525803, 0.026301415637135506, 0.051317788660526276
        ],
        "feature_id": "",
        "feature_index": 116,
        "flat_feature_index": 116,
        "has_nans": false,
        "nan_value_treatment": "AsIs"
      },
      {
        "borders": [0.021191136911511421],
        "feature_id": "",
        "feature_index": 117,
        "flat_feature_index": 117,
        "has_nans": false,
        "nan_value_treatment": "AsIs"
      },
      {
        "borders": [0.011204935610294342],
        "feature_id": "",
        "feature_index": 118,
        "flat_feature_index": 118,
        "has_nans": false,
        "nan_value_treatment": "AsIs"
      },
      {
        "borders": [0.0072928722947835922],
        "feature_id": "",
        "feature_index": 119,
        "flat_feature_index": 119,
        "has_nans": false,
        "nan_value_treatment": "AsIs"
      },
      {
        "borders": [-0.13760626316070557, -0.1174815446138382, -0.11064773797988892, 0.032587505877017975],
        "feature_id": "",
        "feature_index": 120,
        "flat_feature_index": 120,
        "has_nans": false,
        "nan_value_treatment": "AsIs"
      },
      {
        "borders": [
          -0.089347928762435913, -0.079922690987586975, -0.071686819195747375, -0.071350127458572388,
          -0.054887019097805023, -0.054243646562099457, -0.053178299218416214, -0.050654709339141846,
          -0.046479381620883942, -0.044924311339855194, -0.044621840119361877, -0.044359374791383743,
          -0.040237672626972198, -0.038487989455461502, -0.03603275865316391, -0.026892554014921188
        ],
        "feature_id": "",
        "feature_index": 121,
        "flat_feature_index": 121,
        "has_nans": false,
        "nan_value_treatment": "AsIs"
      },
      {
        "borders": [-0.020946409553289413],
        "feature_id": "",
        "feature_index": 122,
        "flat_feature_index": 122,
        "has_nans": false,
        "nan_value_treatment": "AsIs"
      },
      {
        "borders": [0.0077938362956047058],
        "feature_id": "",
        "feature_index": 123,
        "flat_feature_index": 123,
        "has_nans": false,
        "nan_value_treatment": "AsIs"
      },
      {
        "borders": [
          -0.05182478204369545, -0.047289080917835236, -0.045473061501979828, -0.039788223803043365,
          -0.031659878790378571, -0.021077521145343781, 0.075034633278846741, 0.076406016945838928,
          0.079299062490463257, 0.089775234460830688
        ],
        "feature_id": "",
        "feature_index": 124,
        "flat_feature_index": 124,
        "has_nans": false,
        "nan_value_treatment": "AsIs"
      },
      {
        "borders": [
          -0.022871561348438263, 0.013262879103422165, 0.029424834996461868, 0.04397403821349144, 0.056587651371955872
        ],
        "feature_id": "",
        "feature_index": 125,
        "flat_feature_index": 125,
        "has_nans": false,
        "nan_value_treatment": "AsIs"
      },
      {
        "borders": [-0.06550946831703186, 0.020720895379781723, 0.084410279989242554],
        "feature_id": "",
        "feature_index": 126,
        "flat_feature_index": 126,
        "has_nans": false,
        "nan_value_treatment": "AsIs"
      },
      {
        "borders": [
          -0.04856061190366745, -0.019215617328882217, -0.0078311208635568619, -0.0038692185189574957,
          0.0041516651399433613, 0.0075871655717492104, 0.025901403278112411, 0.034585148096084595
        ],
        "feature_id": "",
        "feature_index": 127,
        "flat_feature_index": 127,
        "has_nans": false,
        "nan_value_treatment": "AsIs"
      },
      {
        "borders": [
          -0.092342600226402283, -0.082817763090133667, -0.082447022199630737, -0.081008546054363251,
          -0.079059779644012451, -0.078276582062244415, -0.076213046908378601, -0.068671181797981262,
          -0.067413769662380219, -0.064114809036254883
        ],
        "feature_id": "",
        "feature_index": 128,
        "flat_feature_index": 128,
        "has_nans": false,
        "nan_value_treatment": "AsIs"
      },
      {
        "borders": [
          -0.12817324697971344, -0.10326945781707764, -0.074158228933811188, -0.045346871018409729,
          -0.0030781575478613377
        ],
        "feature_id": "",
        "feature_index": 129,
        "flat_feature_index": 129,
        "has_nans": false,
        "nan_value_treatment": "AsIs"
      },
      {
        "borders": [-0.0057845809496939182, -0.0015670978464186192, 0.019134841859340668],
        "feature_id": "",
        "feature_index": 130,
        "flat_feature_index": 130,
        "has_nans": false,
        "nan_value_treatment": "AsIs"
      },
      {
        "borders": [
          -0.097440659999847412, -0.089573144912719727, -0.082778416574001312, -0.073807686567306519,
          -0.043101083487272263, -0.040989585220813751, -0.010512112639844418, -0.010211516171693802
        ],
        "feature_id": "",
        "feature_index": 131,
        "flat_feature_index": 131,
        "has_nans": false,
        "nan_value_treatment": "AsIs"
      },
      {
        "borders": [0.015070555731654167],
        "feature_id": "",
        "feature_index": 132,
        "flat_feature_index": 132,
        "has_nans": false,
        "nan_value_treatment": "AsIs"
      },
      {
        "borders": [
          -0.085814028978347778, -0.055632233619689941, -0.05153607577085495, -0.043216921389102936,
          -0.041031550616025925, -0.039436385035514832, -0.039244025945663452, -0.039007581770420074,
          -0.029774103313684464, -0.027097370475530624, -0.019080972298979759, -0.016893476247787476,
          -0.0093688946217298508, 0.028102762997150421
        ],
        "feature_id": "",
        "feature_index": 133,
        "flat_feature_index": 133,
        "has_nans": false,
        "nan_value_treatment": "AsIs"
      },
      {
        "borders": [-0.023770976811647415, 0.0022850488312542439, 0.072856858372688293],
        "feature_id": "",
        "feature_index": 134,
        "flat_feature_index": 134,
        "has_nans": false,
        "nan_value_treatment": "AsIs"
      },
      {
        "borders": [
          -0.0087891817092895508, 0.0030442716088145971, 0.0052154720760881901, 0.0082736387848854065,
          0.013962054625153542, 0.016620825976133347, 0.017981387674808502, 0.018635377287864685, 0.020554615184664726,
          0.020923439413309097, 0.021540503948926926, 0.022971738129854202, 0.024050870910286903, 0.034809105098247528
        ],
        "feature_id": "",
        "feature_index": 135,
        "flat_feature_index": 135,
        "has_nans": false,
        "nan_value_treatment": "AsIs"
      },
      {
        "borders": [-0.10038506239652634, 0.04097110778093338],
        "feature_id": "",
        "feature_index": 136,
        "flat_feature_index": 136,
        "has_nans": false,
        "nan_value_treatment": "AsIs"
      },
      {
        "borders": [-0.11389189958572388, -0.050501413643360138, -0.036598630249500275],
        "feature_id": "",
        "feature_index": 137,
        "flat_feature_index": 137,
        "has_nans": false,
        "nan_value_treatment": "AsIs"
      },
      {
        "borders": [
          -0.056763783097267151, -0.046300392597913742, -0.041037127375602722, -0.036055263131856918,
          -0.03576476126909256, -0.022367462515830994, -0.016195200383663177, -0.0084055587649345398
        ],
        "feature_id": "",
        "feature_index": 138,
        "flat_feature_index": 138,
        "has_nans": false,
        "nan_value_treatment": "AsIs"
      },
      {
        "borders": [-0.10693074017763138, -0.035496052354574203],
        "feature_id": "",
        "feature_index": 139,
        "flat_feature_index": 139,
        "has_nans": false,
        "nan_value_treatment": "AsIs"
      },
      {
        "borders": [0.011237932369112968, 0.046647176146507263, 0.088304601609706879, 0.10376805067062378],
        "feature_id": "",
        "feature_index": 140,
        "flat_feature_index": 140,
        "has_nans": false,
        "nan_value_treatment": "AsIs"
      },
      {
        "borders": [
          -0.081799283623695374, -0.056138947606086731, -0.053213618695735931, -0.052563443779945374,
          -0.052363276481628418, -0.045156925916671753
        ],
        "feature_id": "",
        "feature_index": 141,
        "flat_feature_index": 141,
        "has_nans": false,
        "nan_value_treatment": "AsIs"
      },
      {
        "borders": [
          -0.031892478466033936, 0.011670462787151337, 0.039331682026386261, 0.041104696691036224, 0.04862821102142334
        ],
        "feature_id": "",
        "feature_index": 142,
        "flat_feature_index": 142,
        "has_nans": false,
        "nan_value_treatment": "AsIs"
      },
      {
        "borders": [-0.0084262415766716003],
        "feature_id": "",
        "feature_index": 143,
        "flat_feature_index": 143,
        "has_nans": false,
        "nan_value_treatment": "AsIs"
      },
      {
        "borders": [-0.080728590488433838, -0.033536866307258606, 0.013236390426754951],
        "feature_id": "",
        "feature_index": 144,
        "flat_feature_index": 144,
        "has_nans": false,
        "nan_value_treatment": "AsIs"
      },
      {
        "borders": [0.064157336950302124, 0.078407183289527893, 0.081446394324302673],
        "feature_id": "",
        "feature_index": 145,
        "flat_feature_index": 145,
        "has_nans": false,
        "nan_value_treatment": "AsIs"
      },
      {
        "borders": [-0.061065062880516052, -0.027139395475387573],
        "feature_id": "",
        "feature_index": 146,
        "flat_feature_index": 146,
        "has_nans": false,
        "nan_value_treatment": "AsIs"
      },
      {
        "borders": [-0.025261163711547852, -0.018339307978749275],
        "feature_id": "",
        "feature_index": 147,
        "flat_feature_index": 147,
        "has_nans": false,
        "nan_value_treatment": "AsIs"
      },
      {
        "borders": [0.028566377237439156, 0.037773266434669495, 0.097791805863380432],
        "feature_id": "",
        "feature_index": 148,
        "flat_feature_index": 148,
        "has_nans": false,
        "nan_value_treatment": "AsIs"
      },
      {
        "borders": [],
        "feature_id": "",
        "feature_index": 149,
        "flat_feature_index": 149,
        "has_nans": false,
        "nan_value_treatment": "AsIs"
      },
      {
        "borders": [
          -0.016917537897825241, 0.015174435451626778, 0.032416209578514099, 0.033831056207418442, 0.10177958756685257,
          0.10828312486410141
        ],
        "feature_id": "",
        "feature_index": 150,
        "flat_feature_index": 150,
        "has_nans": false,
        "nan_value_treatment": "AsIs"
      },
      {
        "borders": [0.0059730052016675472],
        "feature_id": "",
        "feature_index": 151,
        "flat_feature_index": 151,
        "has_nans": false,
        "nan_value_treatment": "AsIs"
      },
      {
        "borders": [
          -0.083319127559661865, -0.081989482045173645, -0.052914489060640335, -0.05219636857509613,
          -0.051323007792234421, -0.04107239842414856, -0.039429746568202972, -0.017457481473684311
        ],
        "feature_id": "",
        "feature_index": 152,
        "flat_feature_index": 152,
        "has_nans": false,
        "nan_value_treatment": "AsIs"
      },
      {
        "borders": [0.055045634508132935],
        "feature_id": "",
        "feature_index": 153,
        "flat_feature_index": 153,
        "has_nans": false,
        "nan_value_treatment": "AsIs"
      },
      {
        "borders": [
          -0.032835062593221664, -0.019661396741867065, 0.018669217824935913, 0.045422740280628204,
          0.048937529325485229, 0.078734785318374634, 0.1142812967300415
        ],
        "feature_id": "",
        "feature_index": 154,
        "flat_feature_index": 154,
        "has_nans": false,
        "nan_value_treatment": "AsIs"
      },
      {
        "borders": [-0.084217369556427002, -0.073491990566253662, -0.052872162312269211, -0.041854988783597946],
        "feature_id": "",
        "feature_index": 155,
        "flat_feature_index": 155,
        "has_nans": false,
        "nan_value_treatment": "AsIs"
      },
      {
        "borders": [0.030539698898792267],
        "feature_id": "",
        "feature_index": 156,
        "flat_feature_index": 156,
        "has_nans": false,
        "nan_value_treatment": "AsIs"
      },
      {
        "borders": [],
        "feature_id": "",
        "feature_index": 157,
        "flat_feature_index": 157,
        "has_nans": false,
        "nan_value_treatment": "AsIs"
      },
      {
        "borders": [-0.046256706118583679, -0.01545620895922184],
        "feature_id": "",
        "feature_index": 158,
        "flat_feature_index": 158,
        "has_nans": false,
        "nan_value_treatment": "AsIs"
      },
      {
        "borders": [-0.072956688702106476, 0.04079630970954895],
        "feature_id": "",
        "feature_index": 159,
        "flat_feature_index": 159,
        "has_nans": false,
        "nan_value_treatment": "AsIs"
      },
      {
        "borders": [],
        "feature_id": "",
        "feature_index": 160,
        "flat_feature_index": 160,
        "has_nans": false,
        "nan_value_treatment": "AsIs"
      },
      {
        "borders": [0.050574153661727905],
        "feature_id": "",
        "feature_index": 161,
        "flat_feature_index": 161,
        "has_nans": false,
        "nan_value_treatment": "AsIs"
      },
      {
        "borders": [0.036979690194129944],
        "feature_id": "",
        "feature_index": 162,
        "flat_feature_index": 162,
        "has_nans": false,
        "nan_value_treatment": "AsIs"
      },
      {
        "borders": [
          -0.00093296024715527892, 0.044402282685041428, 0.045322399586439133, 0.04571869969367981,
          0.046769417822360992, 0.052211426198482513, 0.054033339023590088, 0.057158820331096649
        ],
        "feature_id": "",
        "feature_index": 163,
        "flat_feature_index": 163,
        "has_nans": false,
        "nan_value_treatment": "AsIs"
      },
      {
        "borders": [
          -0.004744283389300108, 0.011581364087760448, 0.014324463903903961, 0.061030425131320953, 0.063918985426425934,
          0.070140711963176727
        ],
        "feature_id": "",
        "feature_index": 164,
        "flat_feature_index": 164,
        "has_nans": false,
        "nan_value_treatment": "AsIs"
      },
      {
        "borders": [0.036081466823816299, 0.054569147527217865, 0.061242267489433289, 0.13412559032440186],
        "feature_id": "",
        "feature_index": 165,
        "flat_feature_index": 165,
        "has_nans": false,
        "nan_value_treatment": "AsIs"
      },
      {
        "borders": [
          -0.042241692543029785, -0.024637576192617416, 0.010699715465307236, 0.020239779725670815,
          0.024165408685803413, 0.025083482265472412, 0.057313330471515656, 0.073249280452728271, 0.080375626683235168,
          0.089506551623344421, 0.090016923844814301, 0.091939285397529602, 0.092980779707431793, 0.093847557902336121,
          0.095215149223804474, 0.097944982349872589, 0.10275737941265106
        ],
        "feature_id": "",
        "feature_index": 166,
        "flat_feature_index": 166,
        "has_nans": false,
        "nan_value_treatment": "AsIs"
      },
      {
        "borders": [-0.087142050266265869],
        "feature_id": "",
        "feature_index": 167,
        "flat_feature_index": 167,
        "has_nans": false,
        "nan_value_treatment": "AsIs"
      },
      {
        "borders": [-0.098658531904220581, -0.044129751622676849],
        "feature_id": "",
        "feature_index": 168,
        "flat_feature_index": 168,
        "has_nans": false,
        "nan_value_treatment": "AsIs"
      },
      {
        "borders": [
          -0.19751089811325073, -0.08126676082611084, -0.058750785887241364, -0.056761477142572403,
          -0.054674170911312103, -0.053613156080245972
        ],
        "feature_id": "",
        "feature_index": 169,
        "flat_feature_index": 169,
        "has_nans": false,
        "nan_value_treatment": "AsIs"
      },
      {
        "borders": [
          -0.064452975988388062, -0.062474343925714493, -0.054899096488952637, -0.05322583019733429,
          -0.048696979880332947, -0.04820425808429718, -0.047740228474140167, -0.04533693939447403,
          -0.044483382254838943, -0.038804065436124802, -0.02711896225810051, -0.026162676513195038,
          -0.022617317736148834, -0.021792199462652206, -0.019100576639175415, -0.017663760110735893,
          -0.016191832721233368, -0.014951545745134354, -0.0050168745219707489, -0.002556599909439683,
          0.0015806023729965091, 0.0021240953356027603, 0.011306876316666603, 0.02268553152680397, 0.027930881828069687,
          0.035592257976531982, 0.040014460682868958
        ],
        "feature_id": "",
        "feature_index": 170,
        "flat_feature_index": 170,
        "has_nans": false,
        "nan_value_treatment": "AsIs"
      },
      {
        "borders": [-0.056430794298648834, -0.056177575141191483],
        "feature_id": "",
        "feature_index": 171,
        "flat_feature_index": 171,
        "has_nans": false,
        "nan_value_treatment": "AsIs"
      },
      {
        "borders": [-0.080967865884304047],
        "feature_id": "",
        "feature_index": 172,
        "flat_feature_index": 172,
        "has_nans": false,
        "nan_value_treatment": "AsIs"
      },
      {
        "borders": [-0.052045412361621857, 0.026423448696732521, 0.052802495658397675, 0.060691028833389282],
        "feature_id": "",
        "feature_index": 173,
        "flat_feature_index": 173,
        "has_nans": false,
        "nan_value_treatment": "AsIs"
      },
      {
        "borders": [
          0.022136477753520012, 0.023298602551221848, 0.024470718577504158, 0.027244884520769119, 0.030756650492548943
        ],
        "feature_id": "",
        "feature_index": 174,
        "flat_feature_index": 174,
        "has_nans": false,
        "nan_value_treatment": "AsIs"
      },
      {
        "borders": [0.032349847257137299, 0.061167150735855103, 0.091326192021369934],
        "feature_id": "",
        "feature_index": 175,
        "flat_feature_index": 175,
        "has_nans": false,
        "nan_value_treatment": "AsIs"
      },
      {
        "borders": [-0.0074859699234366417, 0.042197093367576599, 0.084933489561080933],
        "feature_id": "",
        "feature_index": 176,
        "flat_feature_index": 176,
        "has_nans": false,
        "nan_value_treatment": "AsIs"
      },
      {
        "borders": [
          -0.065225809812545776, -0.017915651202201843, -0.016383983194828033, 0.0086635258048772812,
          0.011255457065999508, 0.012732375413179398, 0.014081471599638462, 0.014964643865823746, 0.01562768965959549,
          0.016588285565376282, 0.01731271855533123, 0.018176984041929245, 0.018724709749221802, 0.020322877913713455,
          0.020752713084220886, 0.022395191714167595, 0.024912331253290176, 0.034217618405818939
        ],
        "feature_id": "",
        "feature_index": 177,
        "flat_feature_index": 177,
        "has_nans": false,
        "nan_value_treatment": "AsIs"
      },
      {
        "borders": [
          -0.059045415371656418, -0.048419199883937836, -0.042426746338605881, -0.033817291259765625,
          0.003030889667570591
        ],
        "feature_id": "",
        "feature_index": 178,
        "flat_feature_index": 178,
        "has_nans": false,
        "nan_value_treatment": "AsIs"
      },
      {
        "borders": [
          -0.022768197581171989, -0.018417354673147202, -0.017703799530863762, -0.015097599476575851,
          -0.012337064370512962, -0.0096338018774986267, 0.019742649048566818
        ],
        "feature_id": "",
        "feature_index": 179,
        "flat_feature_index": 179,
        "has_nans": false,
        "nan_value_treatment": "AsIs"
      },
      {
        "borders": [0.02533717080950737],
        "feature_id": "",
        "feature_index": 180,
        "flat_feature_index": 180,
        "has_nans": false,
        "nan_value_treatment": "AsIs"
      },
      {
        "borders": [0.018022453412413597, 0.08310265839099884],
        "feature_id": "",
        "feature_index": 181,
        "flat_feature_index": 181,
        "has_nans": false,
        "nan_value_treatment": "AsIs"
      },
      {
        "borders": [
          -0.13169276714324951, -0.11075010150671005, -0.10876384377479553, -0.10553694516420364, -0.104886494576931,
          -0.084248781204223633, -0.068586833775043488, -0.060134150087833405, -0.059311933815479279,
          -0.052235838025808334, -0.050589978694915771, -0.049926646053791046, -0.045135267078876495,
          -0.040969699621200562, -0.035574935376644135
        ],
        "feature_id": "",
        "feature_index": 182,
        "flat_feature_index": 182,
        "has_nans": false,
        "nan_value_treatment": "AsIs"
      },
      {
        "borders": [-0.030292799696326256, -0.015958424657583237, -0.0036899708211421967],
        "feature_id": "",
        "feature_index": 183,
        "flat_feature_index": 183,
        "has_nans": false,
        "nan_value_treatment": "AsIs"
      },
      {
        "borders": [-0.050780162215232849, -0.045066364109516144, -0.027936303988099098, -0.0067223608493804932],
        "feature_id": "",
        "feature_index": 184,
        "flat_feature_index": 184,
        "has_nans": false,
        "nan_value_treatment": "AsIs"
      },
      {
        "borders": [-0.018017403781414032, -0.001637730048969388, 0.0027241394855082035],
        "feature_id": "",
        "feature_index": 185,
        "flat_feature_index": 185,
        "has_nans": false,
        "nan_value_treatment": "AsIs"
      },
      {
        "borders": [-0.079701334238052368, -0.013500547036528587],
        "feature_id": "",
        "feature_index": 186,
        "flat_feature_index": 186,
        "has_nans": false,
        "nan_value_treatment": "AsIs"
      },
      {
        "borders": [
          0.0010584893170744181, 0.0021315440535545349, 0.0064760288223624229, 0.023284036666154861,
          0.04273543506860733, 0.045407570898532867, 0.12897209823131561
        ],
        "feature_id": "",
        "feature_index": 187,
        "flat_feature_index": 187,
        "has_nans": false,
        "nan_value_treatment": "AsIs"
      },
      {
        "borders": [-0.081442438066005707, -0.029939999803900719],
        "feature_id": "",
        "feature_index": 188,
        "flat_feature_index": 188,
        "has_nans": false,
        "nan_value_treatment": "AsIs"
      },
      {
        "borders": [
          0.0022709439508616924, 0.018532603979110718, 0.028183812275528908, 0.035014182329177856, 0.040973365306854248,
          0.050124146044254303, 0.055985506623983383, 0.058900289237499237, 0.060389786958694458, 0.064413741230964661
        ],
        "feature_id": "",
        "feature_index": 189,
        "flat_feature_index": 189,
        "has_nans": false,
        "nan_value_treatment": "AsIs"
      },
      {
        "borders": [0.0049394657835364342, 0.046112451702356339, 0.077975988388061523],
        "feature_id": "",
        "feature_index": 190,
        "flat_feature_index": 190,
        "has_nans": false,
        "nan_value_treatment": "AsIs"
      },
      {
        "borders": [0.054451316595077515, 0.062059186398983002, 0.065344363451004028, 0.081224717199802399],
        "feature_id": "",
        "feature_index": 191,
        "flat_feature_index": 191,
        "has_nans": false,
        "nan_value_treatment": "AsIs"
      },
      {
        "borders": [0.011173944920301437],
        "feature_id": "",
        "feature_index": 192,
        "flat_feature_index": 192,
        "has_nans": false,
        "nan_value_treatment": "AsIs"
      },
      {
        "borders": [-0.029931742697954178],
        "feature_id": "",
        "feature_index": 193,
        "flat_feature_index": 193,
        "has_nans": false,
        "nan_value_treatment": "AsIs"
      },
      {
        "borders": [0.049321547150611877, 0.11307366192340851],
        "feature_id": "",
        "feature_index": 194,
        "flat_feature_index": 194,
        "has_nans": false,
        "nan_value_treatment": "AsIs"
      },
      {
        "borders": [-0.091679498553276062, -0.051901925355195999, -0.029749199748039246],
        "feature_id": "",
        "feature_index": 195,
        "flat_feature_index": 195,
        "has_nans": false,
        "nan_value_treatment": "AsIs"
      },
      {
        "borders": [
          0.046455107629299164, 0.057329330593347549, 0.057557299733161926, 0.062369637191295624, 0.062584668397903442,
          0.10954616218805313
        ],
        "feature_id": "",
        "feature_index": 196,
        "flat_feature_index": 196,
        "has_nans": false,
        "nan_value_treatment": "AsIs"
      },
      {
        "borders": [-0.017677886411547661, 0.049394931644201279],
        "feature_id": "",
        "feature_index": 197,
        "flat_feature_index": 197,
        "has_nans": false,
        "nan_value_treatment": "AsIs"
      },
      {
        "borders": [
          0.013712732121348381, 0.019299965351819992, 0.028306953608989716, 0.028798012062907219, 0.030385570600628853,
          0.036047946661710739, 0.03875134140253067, 0.039389893412590027, 0.040786996483802795, 0.042787455022335052,
          0.043772883713245392, 0.044402845203876495, 0.051879465579986572, 0.052667051553726196, 0.054513540118932724,
          0.084223449230194092, 0.085657238960266113, 0.094816863536834717, 0.095797330141067505, 0.09718729555606842,
          0.098244249820709229, 0.10392111539840698, 0.11216709017753601, 0.12204121053218842, 0.12776088714599609,
          0.13593180477619171, 0.14715656638145447
        ],
        "feature_id": "",
        "feature_index": 198,
        "flat_feature_index": 198,
        "has_nans": false,
        "nan_value_treatment": "AsIs"
      },
      {
        "borders": [
          -0.10634065419435501, -0.062080714851617813, -0.012894107028841972, -0.0032040339428931475,
          -0.0018441400025039911, -0.0013700800482183695, 0.069630444049835205
        ],
        "feature_id": "",
        "feature_index": 199,
        "flat_feature_index": 199,
        "has_nans": false,
        "nan_value_treatment": "AsIs"
      },
      {
        "borders": [
          -0.067978724837303162, -0.05063360184431076, -0.01835428923368454, -0.00056614377535879612,
          0.015872407704591751, 0.03133290633559227, 0.035842806100845337, 0.045572169125080109, 0.050288494676351547,
          0.054393529891967773
        ],
        "feature_id": "",
        "feature_index": 200,
        "flat_feature_index": 200,
        "has_nans": false,
        "nan_value_treatment": "AsIs"
      },
      {
        "borders": [
          0.028434086591005325, 0.044523850083351135, 0.045325316488742828, 0.065569117665290833, 0.076678842306137085,
          0.07763972133398056, 0.084129691123962402, 0.089594155550003052
        ],
        "feature_id": "",
        "feature_index": 201,
        "flat_feature_index": 201,
        "has_nans": false,
        "nan_value_treatment": "AsIs"
      },
      {
        "borders": [
          -0.084264814853668213, 0.0065362071618437767, 0.010462572798132896, 0.014301703311502934,
          0.025129256770014763, 0.026351388543844223, 0.030507095158100128, 0.032421275973320007, 0.040304437279701233,
          0.042078554630279541, 0.060073591768741608, 0.071099579334259033
        ],
        "feature_id": "",
        "feature_index": 202,
        "flat_feature_index": 202,
        "has_nans": false,
        "nan_value_treatment": "AsIs"
      },
      {
        "borders": [-0.019511856138706207, 0.0038131449837237597],
        "feature_id": "",
        "feature_index": 203,
        "flat_feature_index": 203,
        "has_nans": false,
        "nan_value_treatment": "AsIs"
      },
      {
        "borders": [
          -0.060422062873840332, -0.059355072677135468, -0.058049425482749939, -0.056529447436332703,
          -0.055347427725791931, -0.054368559271097183, -0.033380109816789627, -0.031273499131202698,
          -0.028330765664577484, -0.027944039553403854, -0.025301411747932434, -0.023686798289418221,
          -0.01984531432390213, -0.012175493873655796, 0.0011857924982905388, 0.0085588879883289337,
          0.012595024891197681, 0.013634324073791504, 0.014673134312033653, 0.015350362285971642, 0.021668288856744766,
          0.023550074547529221
        ],
        "feature_id": "",
        "feature_index": 204,
        "flat_feature_index": 204,
        "has_nans": false,
        "nan_value_treatment": "AsIs"
      },
      {
        "borders": [
          -0.090777121484279633, -0.065972760319709778, -0.053994443267583847, -0.028381679207086563,
          0.006036197766661644
        ],
        "feature_id": "",
        "feature_index": 205,
        "flat_feature_index": 205,
        "has_nans": false,
        "nan_value_treatment": "AsIs"
      },
      {
        "borders": [-0.023553237318992615, -0.0034788402263075113],
        "feature_id": "",
        "feature_index": 206,
        "flat_feature_index": 206,
        "has_nans": false,
        "nan_value_treatment": "AsIs"
      },
      {
        "borders": [0.091515801846981049, 0.10232110321521759, 0.12195876985788345],
        "feature_id": "",
        "feature_index": 207,
        "flat_feature_index": 207,
        "has_nans": false,
        "nan_value_treatment": "AsIs"
      },
      {
        "borders": [-0.041357696056365967, -0.021290531381964684],
        "feature_id": "",
        "feature_index": 208,
        "flat_feature_index": 208,
        "has_nans": false,
        "nan_value_treatment": "AsIs"
      },
      {
        "borders": [
          -0.036566216498613358, -0.034110996872186661, 0.02506742998957634, 0.042932480573654175, 0.058121286332607269
        ],
        "feature_id": "",
        "feature_index": 209,
        "flat_feature_index": 209,
        "has_nans": false,
        "nan_value_treatment": "AsIs"
      },
      {
        "borders": [
          0.088247045874595642, 0.11607815325260162, 0.11688258498907089, 0.12093885242938995, 0.16743244230747223
        ],
        "feature_id": "",
        "feature_index": 210,
        "flat_feature_index": 210,
        "has_nans": false,
        "nan_value_treatment": "AsIs"
      },
      {
        "borders": [-0.12388479709625244, -0.11601302027702332, -0.051191650331020355],
        "feature_id": "",
        "feature_index": 211,
        "flat_feature_index": 211,
        "has_nans": false,
        "nan_value_treatment": "AsIs"
      },
      {
        "borders": [0.044001895934343338, 0.046082869172096252],
        "feature_id": "",
        "feature_index": 212,
        "flat_feature_index": 212,
        "has_nans": false,
        "nan_value_treatment": "AsIs"
      },
      {
        "borders": [0.023479361087083817, 0.068341158330440521, 0.08528493344783783, 0.11174723505973816],
        "feature_id": "",
        "feature_index": 213,
        "flat_feature_index": 213,
        "has_nans": false,
        "nan_value_treatment": "AsIs"
      },
      {
        "borders": [-0.14823102951049805, -0.096546486020088196, -0.039399683475494385, -0.0057938662357628345],
        "feature_id": "",
        "feature_index": 214,
        "flat_feature_index": 214,
        "has_nans": false,
        "nan_value_treatment": "AsIs"
      },
      {
        "borders": [
          -0.15424051880836487, -0.15193578600883484, -0.14428722858428955, -0.13697659969329834, -0.11839354038238525,
          -0.099320061504840851, -0.096857637166976929, -0.089094102382659912, -0.071544013917446136,
          -0.068998202681541443, -0.065786369144916534, -0.0550367571413517, -0.050616435706615448
        ],
        "feature_id": "",
        "feature_index": 215,
        "flat_feature_index": 215,
        "has_nans": false,
        "nan_value_treatment": "AsIs"
      },
      {
        "borders": [-0.072562918066978455, -0.072048783302307129, -0.037471987307071686],
        "feature_id": "",
        "feature_index": 216,
        "flat_feature_index": 216,
        "has_nans": false,
        "nan_value_treatment": "AsIs"
      },
      {
        "borders": [-0.020661547780036926, 0.022731687873601913, 0.1392541378736496],
        "feature_id": "",
        "feature_index": 217,
        "flat_feature_index": 217,
        "has_nans": false,
        "nan_value_treatment": "AsIs"
      },
      {
        "borders": [-0.13637563586235046, 0.036178499460220337],
        "feature_id": "",
        "feature_index": 218,
        "flat_feature_index": 218,
        "has_nans": false,
        "nan_value_treatment": "AsIs"
      },
      {
        "borders": [0.027047522366046906, 0.033408008515834808, 0.051700592041015625, 0.15007412433624268],
        "feature_id": "",
        "feature_index": 219,
        "flat_feature_index": 219,
        "has_nans": false,
        "nan_value_treatment": "AsIs"
      },
      {
        "borders": [-0.061676397919654846, -0.05397457629442215],
        "feature_id": "",
        "feature_index": 220,
        "flat_feature_index": 220,
        "has_nans": false,
        "nan_value_treatment": "AsIs"
      },
      {
        "borders": [0.037349201738834381, 0.11117523163557053, 0.1916469931602478, 0.19716629385948181],
        "feature_id": "",
        "feature_index": 221,
        "flat_feature_index": 221,
        "has_nans": false,
        "nan_value_treatment": "AsIs"
      },
      {
        "borders": [
          -0.011352896690368652, -0.0093817766755819321, -0.0080146221444010735, -0.0054237088188529015,
          0.00095904141198843718, 0.0046165594831109047, 0.0056029893457889557, 0.0072749704122543335,
          0.019925137981772423, 0.024729166179895401, 0.028948523104190826, 0.066751286387443542, 0.069129243493080139,
          0.084149837493896484, 0.085615962743759155
        ],
        "feature_id": "",
        "feature_index": 222,
        "flat_feature_index": 222,
        "has_nans": false,
        "nan_value_treatment": "AsIs"
      },
      {
        "borders": [-0.064678072929382324, 0.0066724559292197227],
        "feature_id": "",
        "feature_index": 223,
        "flat_feature_index": 223,
        "has_nans": false,
        "nan_value_treatment": "AsIs"
      },
      {
        "borders": [
          -0.015471522696316242, -0.014726240187883377, -0.011146795004606247, 0.0061317151412367821,
          0.011301874183118343, 0.012586082331836224, 0.013144368305802345, 0.014810796827077866, 0.03028741292655468,
          0.034095972776412964, 0.063986897468566895
        ],
        "feature_id": "",
        "feature_index": 224,
        "flat_feature_index": 224,
        "has_nans": false,
        "nan_value_treatment": "AsIs"
      },
      {
        "borders": [0.10967499762773514, 0.1107199490070343, 0.11132529377937317],
        "feature_id": "",
        "feature_index": 225,
        "flat_feature_index": 225,
        "has_nans": false,
        "nan_value_treatment": "AsIs"
      },
      {
        "borders": [
          0.012677904218435287, 0.050828240811824799, 0.059725642204284668, 0.066426202654838562, 0.070222862064838409,
          0.11158439517021179, 0.14567264914512634
        ],
        "feature_id": "",
        "feature_index": 226,
        "flat_feature_index": 226,
        "has_nans": false,
        "nan_value_treatment": "AsIs"
      },
      {
        "borders": [
          -0.081755489110946655, -0.045486822724342346, -0.037634950131177902, -0.03467550128698349,
          -0.031713340431451797, -0.026976712048053741, -0.023239407688379288, -0.022209789603948593,
          -0.017729543149471283, -0.017581477761268616, -0.017359249293804169, -0.016142860054969788,
          -0.013738129287958145, 0.0025632048491388559, 0.028650678694248199, 0.031076725572347641
        ],
        "feature_id": "",
        "feature_index": 227,
        "flat_feature_index": 227,
        "has_nans": false,
        "nan_value_treatment": "AsIs"
      },
      {
        "borders": [-0.11281836032867432, 0.022699382156133652, 0.035628899931907654],
        "feature_id": "",
        "feature_index": 228,
        "flat_feature_index": 228,
        "has_nans": false,
        "nan_value_treatment": "AsIs"
      },
      {
        "borders": [
          -0.067805469036102295, -0.034194976091384888, -0.0088597238063812256, 0.037759266793727875,
          0.042452439665794373, 0.044807218015193939
        ],
        "feature_id": "",
        "feature_index": 229,
        "flat_feature_index": 229,
        "has_nans": false,
        "nan_value_treatment": "AsIs"
      },
      {
        "borders": [
          -0.039849504828453064, 0.019054379314184189, 0.024100977927446365, 0.025660663843154907, 0.060743577778339386,
          0.068366847932338715
        ],
        "feature_id": "",
        "feature_index": 230,
        "flat_feature_index": 230,
        "has_nans": false,
        "nan_value_treatment": "AsIs"
      },
      {
        "borders": [-0.069378212094306946],
        "feature_id": "",
        "feature_index": 231,
        "flat_feature_index": 231,
        "has_nans": false,
        "nan_value_treatment": "AsIs"
      },
      {
        "borders": [-0.082399263978004456, -0.015894763171672821, 0.013711621984839439],
        "feature_id": "",
        "feature_index": 232,
        "flat_feature_index": 232,
        "has_nans": false,
        "nan_value_treatment": "AsIs"
      },
      {
        "borders": [-0.064621388912200928, -0.019845195114612579],
        "feature_id": "",
        "feature_index": 233,
        "flat_feature_index": 233,
        "has_nans": false,
        "nan_value_treatment": "AsIs"
      },
      {
        "borders": [0.015547501854598522, 0.034172885119915009, 0.071005374193191528],
        "feature_id": "",
        "feature_index": 234,
        "flat_feature_index": 234,
        "has_nans": false,
        "nan_value_treatment": "AsIs"
      },
      {
        "borders": [
          -0.071445554494857788, -0.066247209906578064, -0.0646095871925354, -0.063996292650699615,
          -0.062593787908554077, -0.060764048248529434, -0.055949695408344269, -0.053314294666051865,
          -0.052664190530776978, -0.052223555743694305, -0.048786170780658722, -0.02728499099612236,
          -0.024222450330853462, -0.022708777338266373, -0.019017750397324562, -0.0041583962738513947,
          0.0050378344021737576
        ],
        "feature_id": "",
        "feature_index": 235,
        "flat_feature_index": 235,
        "has_nans": false,
        "nan_value_treatment": "AsIs"
      },
      {
        "borders": [
          0.0041134143248200417, 0.029709514230489731, 0.035454139113426208, 0.050871130079030991, 0.052128329873085022,
          0.091494880616664886
        ],
        "feature_id": "",
        "feature_index": 236,
        "flat_feature_index": 236,
        "has_nans": false,
        "nan_value_treatment": "AsIs"
      },
      {
        "borders": [
          -0.093173444271087646, -0.091603606939315796, -0.061518579721450806, -0.061182491481304169,
          -0.0059104915708303452, -0.0019393390975892544
        ],
        "feature_id": "",
        "feature_index": 237,
        "flat_feature_index": 237,
        "has_nans": false,
        "nan_value_treatment": "AsIs"
      },
      {
        "borders": [],
        "feature_id": "",
        "feature_index": 238,
        "flat_feature_index": 238,
        "has_nans": false,
        "nan_value_treatment": "AsIs"
      },
      {
        "borders": [
          -0.0029561026021838188, -0.0015195708256214857, 0.0064118867740035057, 0.015094169415533543,
          0.016856927424669266, 0.022698577493429184, 0.024431949481368065
        ],
        "feature_id": "",
        "feature_index": 239,
        "flat_feature_index": 239,
        "has_nans": false,
        "nan_value_treatment": "AsIs"
      },
      {
        "borders": [
          -0.10260781645774841, -0.094669118523597717, -0.084083765745162964, -0.036447301506996155,
          -0.035978958010673523, -0.02918744832277298, -0.016167312860488892, 0.018918929621577263
        ],
        "feature_id": "",
        "feature_index": 240,
        "flat_feature_index": 240,
        "has_nans": false,
        "nan_value_treatment": "AsIs"
      },
      {
        "borders": [],
        "feature_id": "",
        "feature_index": 241,
        "flat_feature_index": 241,
        "has_nans": false,
        "nan_value_treatment": "AsIs"
      },
      {
        "borders": [],
        "feature_id": "",
        "feature_index": 242,
        "flat_feature_index": 242,
        "has_nans": false,
        "nan_value_treatment": "AsIs"
      },
      {
        "borders": [
          -0.040019094944000244, -0.029336288571357727, -0.02797301672399044, -0.025685766711831093,
          -0.021831851452589035, -0.019633229821920395, -0.0077655920758843422, -0.0028144284151494503,
          0.016738714650273323, 0.019838860258460045, 0.059775054454803467, 0.070531919598579407
        ],
        "feature_id": "",
        "feature_index": 243,
        "flat_feature_index": 243,
        "has_nans": false,
        "nan_value_treatment": "AsIs"
      },
      {
        "borders": [-0.018466692417860031, -0.013982340693473816],
        "feature_id": "",
        "feature_index": 244,
        "flat_feature_index": 244,
        "has_nans": false,
        "nan_value_treatment": "AsIs"
      },
      {
        "borders": [0.049803804606199265],
        "feature_id": "",
        "feature_index": 245,
        "flat_feature_index": 245,
        "has_nans": false,
        "nan_value_treatment": "AsIs"
      },
      {
        "borders": [
          -0.052447296679019928, -0.043903227895498276, -0.043530866503715515, -0.042672879993915558,
          -0.042353235185146332, -0.041319578886032104, -0.038187220692634583, -0.034471560269594193,
          -0.034152477979660034, -0.032284937798976898, -0.031891755759716034, -0.030912073329091072,
          -0.026446502655744553, -0.024886054918169975, -0.024681970477104187, -0.023759018629789352,
          -0.021896436810493469, -0.017934586852788925, -0.013503989204764366
        ],
        "feature_id": "",
        "feature_index": 246,
        "flat_feature_index": 246,
        "has_nans": false,
        "nan_value_treatment": "AsIs"
      },
      {
        "borders": [
          -0.058955352753400803, -0.043535642325878143, -0.012491384521126747, -0.007653173990547657,
          0.0032566727604717016
        ],
        "feature_id": "",
        "feature_index": 247,
        "flat_feature_index": 247,
        "has_nans": false,
        "nan_value_treatment": "AsIs"
      },
      {
        "borders": [-0.11441661417484283, -0.026035714894533157],
        "feature_id": "",
        "feature_index": 248,
        "flat_feature_index": 248,
        "has_nans": false,
        "nan_value_treatment": "AsIs"
      },
      {
        "borders": [0.026910403743386269, 0.028023552149534225],
        "feature_id": "",
        "feature_index": 249,
        "flat_feature_index": 249,
        "has_nans": false,
        "nan_value_treatment": "AsIs"
      },
      {
        "borders": [
          0.030929673463106155, 0.038274265825748444, 0.045809485018253326, 0.046808864921331406, 0.052612096071243286,
          0.077442511916160583, 0.082353264093399048, 0.090905129909515381, 0.092288553714752197, 0.09371340274810791,
          0.095016986131668091, 0.10115469247102737, 0.11725857853889465, 0.11914177983999252, 0.12266179919242859,
          0.12451720237731934
        ],
        "feature_id": "",
        "feature_index": 250,
        "flat_feature_index": 250,
        "has_nans": false,
        "nan_value_treatment": "AsIs"
      },
      {
        "borders": [
          -0.010146741755306721, -0.00507370475679636, -0.0046004769392311573, 0.0081072375178337097,
          0.0142241595312953, 0.03491046279668808, 0.037051908671855927, 0.0521373450756073, 0.054665476083755493,
          0.058069407939910889, 0.064497716724872589, 0.066297724843025208, 0.085046440362930298, 0.090633444488048553,
          0.13336515426635742
        ],
        "feature_id": "",
        "feature_index": 251,
        "flat_feature_index": 251,
        "has_nans": false,
        "nan_value_treatment": "AsIs"
      },
      {
        "borders": [
          -0.045055504888296127, -0.030361725017428398, -0.029900198802351952, 0.0055643133819103241,
          0.01362292468547821, 0.015699157491326332, 0.018431626260280609, 0.025644209235906601, 0.027108024805784225,
          0.027714479714632034, 0.030035533010959625, 0.033651649951934814, 0.049342747777700424
        ],
        "feature_id": "",
        "feature_index": 252,
        "flat_feature_index": 252,
        "has_nans": false,
        "nan_value_treatment": "AsIs"
      },
      {
        "borders": [
          -0.011307859793305397, -0.0070649730041623116, -0.0062698409892618656, -0.0042654024437069893,
          -0.00016038781905081123, 0.0050874864682555199, 0.0071810558438301086, 0.010052156634628773,
          0.019908998161554337, 0.021952381357550621, 0.024836685508489609, 0.030236877501010895, 0.032951474189758301
        ],
        "feature_id": "",
        "feature_index": 253,
        "flat_feature_index": 253,
        "has_nans": false,
        "nan_value_treatment": "AsIs"
      },
      {
        "borders": [
          -0.0026152022182941437, -0.0020805159583687782, 0.0047568734735250473, 0.0052976100705564022,
          0.0079143978655338287, 0.0096169132739305496, 0.012687264010310173, 0.023420069366693497,
          0.023970600217580795, 0.030298581346869469, 0.031977098435163498, 0.038205962628126144, 0.039586964994668961,
          0.044011376798152924, 0.044966384768486023, 0.046340402215719223, 0.068267852067947388, 0.082114771008491516,
          0.089037045836448669
        ],
        "feature_id": "",
        "feature_index": 254,
        "flat_feature_index": 254,
        "has_nans": false,
        "nan_value_treatment": "AsIs"
      },
      {
        "borders": [
          -0.039815139025449753, 0.020959347486495972, 0.04275234043598175, 0.044600918889045715, 0.049915637820959091
        ],
        "feature_id": "",
        "feature_index": 255,
        "flat_feature_index": 255,
        "has_nans": false,
        "nan_value_treatment": "AsIs"
      }
    ]
  },
  "model_info": {
    "catboost_version_info": "Git info:\n    Commit: 0bcf252505e3d1cf01acd925dcd7026799512fb9\n    Branch: tags/v1.2.8\n    Author: akhropov <akhropov@yandex-team.com>\n    Summary: CatBoost Release 1.2.8. commit_hash:2f3bd095bc4e3a4c5ef9b0dcaf6f7f1a9d2bc3e7\n    git-svn info:\n    Last Changed Rev: 9293085\n\nOther info:\n    Build by: runner\n    Top src dir: /Users/runner/work/catboost/catboost/catboost\n",
    "class_params": {
      "class_label_type": "Integer",
      "class_names": [0, 1],
      "class_to_label": [0, 1],
      "classes_count": 0
    },
    "model_guid": "de1da7dc-2103565b-72312a5f-dfd118b5",
    "output_options": "{\"name\":\"experiment\",\"verbose\":100,\"test_error_log\":\"test_error.tsv\",\"json_log\":\"catboost_training.json\",\"result_model_file\":\"model\",\"roc_file\":\"\",\"eval_file_name\":\"\",\"use_best_model\":true,\"allow_writing_files\":true,\"prediction_type\":[\"RawFormulaVal\"],\"fstr_internal_file\":\"\",\"output_columns\":[\"SampleId\",\"RawFormulaVal\",\"Label\"],\"snapshot_interval\":600,\"time_left_log\":\"time_left.tsv\",\"fstr_type\":\"FeatureImportance\",\"profile_log\":\"catboost_profile.log\",\"train_dir\":\"catboost_info\",\"learn_error_log\":\"learn_error.tsv\",\"training_options_file\":\"\",\"snapshot_file\":\"experiment.cbsnapshot\",\"save_snapshot\":false,\"model_format\":[\"CatboostBinary\"],\"final_feature_calcer_computation_mode\":\"Default\",\"metric_period\":1,\"output_borders\":\"\",\"final_ctr_computation_mode\":\"Default\",\"best_model_min_trees\":1,\"fstr_regular_file\":\"\"}",
    "params": {
      "boosting_options": {
        "approx_on_full_history": false,
        "boost_from_average": false,
        "boosting_type": "Plain",
        "fold_len_multiplier": 2,
        "fold_permutation_block": 0,
        "iterations": 500,
        "learning_rate": 0.05000000074505806,
        "model_shrink_mode": "Constant",
        "model_shrink_rate": 0,
        "od_config": {
          "stop_pvalue": 0,
          "type": "None",
          "wait_iterations": 20
        },
        "permutation_count": 4,
        "posterior_sampling": false
      },
      "cat_feature_params": {
        "combinations_ctrs": [
          {
            "ctr_binarization": {
              "border_count": 15,
              "border_type": "Uniform"
            },
            "ctr_type": "Borders",
            "prior_estimation": "No",
            "priors": [
              [0, 1],
              [0.5, 1],
              [1, 1]
            ],
            "target_binarization": {
              "border_count": 1,
              "border_type": "MinEntropy"
            }
          },
          {
            "ctr_binarization": {
              "border_count": 15,
              "border_type": "Uniform"
            },
            "ctr_type": "Counter",
            "prior_estimation": "No",
            "priors": [[0, 1]]
          }
        ],
        "counter_calc_method": "SkipTest",
        "ctr_leaf_count_limit": 18446744073709551615,
        "max_ctr_complexity": 4,
        "one_hot_max_size": 2,
        "per_feature_ctrs": {},
        "simple_ctrs": [
          {
            "ctr_binarization": {
              "border_count": 15,
              "border_type": "Uniform"
            },
            "ctr_type": "Borders",
            "prior_estimation": "No",
            "priors": [
              [0, 1],
              [0.5, 1],
              [1, 1]
            ],
            "target_binarization": {
              "border_count": 1,
              "border_type": "MinEntropy"
            }
          },
          {
            "ctr_binarization": {
              "border_count": 15,
              "border_type": "Uniform"
            },
            "ctr_type": "Counter",
            "prior_estimation": "No",
            "priors": [[0, 1]]
          }
        ],
        "store_all_simple_ctr": false,
        "target_binarization": {
          "border_count": 1,
          "border_type": "MinEntropy"
        }
      },
      "data_processing_options": {
        "allow_const_label": false,
        "auto_class_weights": "None",
        "class_names": [0, 1],
        "class_weights": [],
        "classes_count": 0,
        "dev_default_value_fraction_for_sparse": 0.82999998331069946,
        "dev_group_features": false,
        "dev_leafwise_scoring": false,
        "dev_sparse_array_indexing": "Indices",
        "embedding_processing_options": {
          "embedding_processing": {
            "default": ["LDA", "KNN"]
          }
        },
        "eval_fraction": 0,
        "float_features_binarization": {
          "border_count": 254,
          "border_type": "GreedyLogSum",
          "dev_max_subset_size_for_build_borders": 200000,
          "nan_mode": "Min"
        },
        "force_unit_auto_pair_weights": false,
        "has_time": false,
        "ignored_features": [],
        "per_float_feature_quantization": {},
        "target_border": null,
        "text_processing_options": {
          "dictionaries": [
            {
              "dictionary_id": "BiGram",
              "end_of_sentence_token_policy": "Skip",
              "end_of_word_token_policy": "Insert",
              "gram_order": "2",
              "max_dictionary_size": "50000",
              "occurrence_lower_bound": "5",
              "skip_step": "0",
              "start_token_id": "0",
              "token_level_type": "Word"
            },
            {
              "dictionary_id": "Word",
              "end_of_sentence_token_policy": "Skip",
              "end_of_word_token_policy": "Insert",
              "gram_order": "1",
              "max_dictionary_size": "50000",
              "occurrence_lower_bound": "5",
              "skip_step": "0",
              "start_token_id": "0",
              "token_level_type": "Word"
            }
          ],
          "feature_processing": {
            "default": [
              {
                "dictionaries_names": ["BiGram", "Word"],
                "feature_calcers": ["BoW"],
                "tokenizers_names": ["Space"]
              },
              {
                "dictionaries_names": ["Word"],
                "feature_calcers": ["NaiveBayes"],
                "tokenizers_names": ["Space"]
              }
            ]
          },
          "tokenizers": [
            {
              "delimiter": " ",
              "languages": [],
              "lemmatizing": "0",
              "lowercasing": "0",
              "number_process_policy": "LeaveAsIs",
              "number_token": "",
              "separator_type": "ByDelimiter",
              "skip_empty": "1",
              "split_by_set": "0",
              "subtokens_policy": "SingleToken",
              "token_types": ["Number", "Unknown", "Word"],
              "tokenizer_id": "Space"
            }
          ]
        }
      },
      "detailed_profile": false,
      "flat_params": {
        "depth": 6,
        "eval_metric": "AUC",
        "iterations": 500,
        "learning_rate": 0.050000000000000003,
        "loss_function": "Logloss",
        "random_seed": 42,
        "verbose": 100
      },
      "logging_level": "Verbose",
      "loss_function": {
        "params": {},
        "type": "Logloss"
      },
      "metadata": {},
      "metrics": {
        "custom_metrics": [],
        "eval_metric": {
          "params": {},
          "type": "AUC"
        },
        "objective_metric": {
          "params": {},
          "type": "Logloss"
        }
      },
      "pool_metainfo_options": {
        "tags": {}
      },
      "random_seed": 42,
      "system_options": {
        "file_with_hosts": "hosts.txt",
        "node_port": 0,
        "node_type": "SingleHost",
        "thread_count": 11,
        "used_ram_limit": ""
      },
      "task_type": "CPU",
      "tree_learner_options": {
        "bayesian_matrix_reg": 0.10000000149011612,
        "bootstrap": {
          "mvs_reg": null,
          "subsample": 0.80000001192092896,
          "type": "MVS"
        },
        "depth": 6,
        "dev_efb_max_buckets": 1024,
        "dev_leafwise_approxes": false,
        "dev_score_calc_obj_block_size": 5000000,
        "grow_policy": "SymmetricTree",
        "l2_leaf_reg": 3,
        "leaf_estimation_backtracking": "AnyImprovement",
        "leaf_estimation_iterations": 10,
        "leaf_estimation_method": "Newton",
        "max_leaves": 64,
        "min_data_in_leaf": 1,
        "model_size_reg": 0.5,
        "monotone_constraints": {},
        "penalties": {
          "feature_weights": {},
          "first_feature_use_penalties": {},
          "penalties_coefficient": 1,
          "per_object_feature_penalties": {}
        },
        "random_score_type": "NormalWithModelSizeDecrease",
        "random_strength": 1,
        "rsm": 1,
        "sampling_frequency": "PerTree",
        "score_function": "Cosine",
        "sparse_features_conflict_fraction": 0
      }
    },
    "train_finish_time": "2025-05-04T00:23:52Z",
